<?xml version="1.0"?>
<opencv_storage>
<myhaar type_id="opencv-haar-classifier">
  <size>
    24 24</size>
  <stages>
    <_>
      <trees>
        <_>
          <_>
            <feature>
              <rects>
                <_>
                  0 0 24 21 -1.</_>
                <_>
                  8 7 8 7 9.</_></rects>
              <tilted>0</tilted></feature>
            <threshold>-0.8045719265937805</threshold>
            <left_val>0.9599999785423279</left_val>
            <right_val>-0.9600002169609070</right_val></_></_>
        <_>
          <_>
            <feature>
              <rects>
                <_>
                  0 7 24 16 -1.</_>
                <_>
                  6 7 12 16 2.</_></rects>
              <tilted>0</tilted></feature>
            <threshold>-0.2116677016019821</threshold>
            <left_val>0.8342202901840210</left_val>
            <right_val>-0.9805188775062561</right_val></_></_></trees>
      <stage_threshold>-0.1257798969745636</stage_threshold>
      <parent>-1</parent>
      <next>-1</next></_>
    <_>
      <trees>
        <_>
          <_>
            <feature>
              <rects>
                <_>
                  5 0 14 12 -1.</_>
                <_>
                  5 6 14 6 2.</_></rects>
              <tilted>0</tilted></feature>
            <threshold>-0.1380614936351776</threshold>
            <left_val>0.6470589041709900</left_val>
            <right_val>-0.9506176710128784</right_val></_></_>
        <_>
          <_>
            <feature>
              <rects>
                <_>
                  0 0 24 24 -1.</_>
                <_>
                  8 8 8 8 9.</_></rects>
              <tilted>0</tilted></feature>
            <threshold>-1.2701970338821411</threshold>
            <left_val>0.8132426738739014</left_val>
            <right_val>-0.6187645196914673</right_val></_></_>
        <_>
          <_>
            <feature>
              <rects>
                <_>
                  0 15 1 8 -1.</_>
                <_>
                  0 19 1 4 2.</_></rects>
              <tilted>0</tilted></feature>
            <threshold>-4.7570921014994383e-004</threshold>
            <left_val>-0.9232293963432312</left_val>
            <right_val>0.6304736137390137</right_val></_></_>
        <_>
          <_>
            <feature>
              <rects>
                <_>
                  14 0 4 2 -1.</_>
                <_>
                  14 1 4 1 2.</_></rects>
              <tilted>0</tilted></feature>
            <threshold>-2.3662010789848864e-005</threshold>
            <left_val>-0.7148355245590210</left_val>
            <right_val>0.3951086103916168</right_val></_></_></trees>
      <stage_threshold>-0.5437999963760376</stage_threshold>
      <parent>0</parent>
      <next>-1</next></_>
    <_>
      <trees>
        <_>
          <_>
            <feature>
              <rects>
                <_>
                  0 6 24 8 -1.</_>
                <_>
                  6 6 12 8 2.</_></rects>
              <tilted>0</tilted></feature>
            <threshold>-0.1800438016653061</threshold>
            <left_val>0.6893203854560852</left_val>
            <right_val>-0.7319589853286743</right_val></_></_>
        <_>
          <_>
            <feature>
              <rects>
                <_>
                  18 7 6 16 -1.</_>
                <_>
                  18 7 3 16 2.</_></rects>
              <tilted>0</tilted></feature>
            <threshold>-0.0298396199941635</threshold>
            <left_val>0.4000163078308106</left_val>
            <right_val>-0.9074900746345520</right_val></_></_>
        <_>
          <_>
            <feature>
              <rects>
                <_>
                  0 7 6 16 -1.</_>
                <_>
                  3 7 3 16 2.</_></rects>
              <tilted>0</tilted></feature>
            <threshold>-0.0514956116676331</threshold>
            <left_val>0.6948277950286865</left_val>
            <right_val>-0.8561078906059265</right_val></_></_>
        <_>
          <_>
            <feature>
              <rects>
                <_>
                  21 0 3 4 -1.</_>
                <_>
                  21 2 3 2 2.</_></rects>
              <tilted>0</tilted></feature>
            <threshold>-2.1229770209174603e-004</threshold>
            <left_val>-0.7730733156204224</left_val>
            <right_val>0.2333417981863022</right_val></_></_></trees>
      <stage_threshold>-0.9547088146209717</stage_threshold>
      <parent>1</parent>
      <next>-1</next></_>
    <_>
      <trees>
        <_>
          <_>
            <feature>
              <rects>
                <_>
                  4 0 16 24 -1.</_>
                <_>
                  4 6 16 12 2.</_></rects>
              <tilted>0</tilted></feature>
            <threshold>-0.2869555056095123</threshold>
            <left_val>0.9157894849777222</left_val>
            <right_val>-0.8285716772079468</right_val></_></_>
        <_>
          <_>
            <feature>
              <rects>
                <_>
                  3 22 21 2 -1.</_>
                <_>
                  3 23 21 1 2.</_></rects>
              <tilted>0</tilted></feature>
            <threshold>5.4509318433701992e-003</threshold>
            <left_val>-0.6789119839668274</left_val>
            <right_val>0.9099935293197632</right_val></_></_>
        <_>
          <_>
            <feature>
              <rects>
                <_>
                  0 1 2 6 -1.</_>
                <_>
                  0 4 2 3 2.</_></rects>
              <tilted>0</tilted></feature>
            <threshold>2.7135449272464029e-005</threshold>
            <left_val>-0.9531003236770630</left_val>
            <right_val>0.5872805118560791</right_val></_></_></trees>
      <stage_threshold>-0.9202033281326294</stage_threshold>
      <parent>2</parent>
      <next>-1</next></_>
    <_>
      <trees>
        <_>
          <_>
            <feature>
              <rects>
                <_>
                  1 0 21 20 -1.</_>
                <_>
                  1 5 21 10 2.</_></rects>
              <tilted>0</tilted></feature>
            <threshold>-0.1562680006027222</threshold>
            <left_val>0.7217391729354858</left_val>
            <right_val>-0.9764708876609802</right_val></_></_>
        <_>
          <_>
            <feature>
              <rects>
                <_>
                  10 18 14 6 -1.</_>
                <_>
                  10 21 14 3 2.</_></rects>
              <tilted>0</tilted></feature>
            <threshold>0.0128420703113079</threshold>
            <left_val>-0.6850491762161255</left_val>
            <right_val>0.3253976106643677</right_val></_></_>
        <_>
          <_>
            <feature>
              <rects>
                <_>
                  2 10 19 6 -1.</_>
                <_>
                  2 12 19 2 3.</_></rects>
              <tilted>0</tilted></feature>
            <threshold>-0.0214142594486475</threshold>
            <left_val>0.8147609829902649</left_val>
            <right_val>-0.6022719740867615</right_val></_></_></trees>
      <stage_threshold>-0.8467590808868408</stage_threshold>
      <parent>3</parent>
      <next>-1</next></_>
    <_>
      <trees>
        <_>
          <_>
            <feature>
              <rects>
                <_>
                  0 0 24 2 -1.</_>
                <_>
                  0 0 12 1 2.</_>
                <_>
                  12 1 12 1 2.</_></rects>
              <tilted>0</tilted></feature>
            <threshold>4.5061181299388409e-004</threshold>
            <left_val>0.5897436738014221</left_val>
            <right_val>-0.8313257098197937</right_val></_></_>
        <_>
          <_>
            <feature>
              <rects>
                <_>
                  18 15 6 2 -1.</_>
                <_>
                  18 15 3 2 2.</_></rects>
              <tilted>0</tilted></feature>
            <threshold>-0.0117029696702957</threshold>
            <left_val>0.6952974796295166</left_val>
            <right_val>-0.3274323046207428</right_val></_></_>
        <_>
          <_>
            <feature>
              <rects>
                <_>
                  2 7 8 2 -1.</_>
                <_>
                  2 7 4 2 2.</_></rects>
              <tilted>1</tilted></feature>
            <threshold>0.0156830009073019</threshold>
            <left_val>-0.9153602719306946</left_val>
            <right_val>0.5229120254516602</right_val></_></_></trees>
      <stage_threshold>-0.6530488729476929</stage_threshold>
      <parent>4</parent>
      <next>-1</next></_>
    <_>
      <trees>
        <_>
          <_>
            <feature>
              <rects>
                <_>
                  0 0 24 1 -1.</_>
                <_>
                  6 0 12 1 2.</_></rects>
              <tilted>0</tilted></feature>
            <threshold>9.1070291819050908e-004</threshold>
            <left_val>0.4518519937992096</left_val>
            <right_val>-0.9384620189666748</right_val></_></_>
        <_>
          <_>
            <feature>
              <rects>
                <_>
                  21 0 2 2 -1.</_>
                <_>
                  21 0 2 1 2.</_></rects>
              <tilted>1</tilted></feature>
            <threshold>-8.3358888514339924e-004</threshold>
            <left_val>-1.</left_val>
            <right_val>0.0297808293253183</right_val></_></_>
        <_>
          <_>
            <feature>
              <rects>
                <_>
                  3 0 2 2 -1.</_>
                <_>
                  3 0 1 2 2.</_></rects>
              <tilted>1</tilted></feature>
            <threshold>-2.7300959118292667e-005</threshold>
            <left_val>0.6295794248580933</left_val>
            <right_val>-0.7302206754684448</right_val></_></_></trees>
      <stage_threshold>-0.2791017889976502</stage_threshold>
      <parent>5</parent>
      <next>-1</next></_>
    <_>
      <trees>
        <_>
          <_>
            <feature>
              <rects>
                <_>
                  1 16 21 8 -1.</_>
                <_>
                  1 18 21 4 2.</_></rects>
              <tilted>0</tilted></feature>
            <threshold>-0.0225562304258347</threshold>
            <left_val>0.8000000715255737</left_val>
            <right_val>-0.5333335995674133</right_val></_></_>
        <_>
          <_>
            <feature>
              <rects>
                <_>
                  23 4 1 14 -1.</_>
                <_>
                  23 11 1 7 2.</_></rects>
              <tilted>0</tilted></feature>
            <threshold>-6.8167601712048054e-003</threshold>
            <left_val>-1.</left_val>
            <right_val>0.2565675973892212</right_val></_></_>
        <_>
          <_>
            <feature>
              <rects>
                <_>
                  0 4 1 14 -1.</_>
                <_>
                  0 11 1 7 2.</_></rects>
              <tilted>0</tilted></feature>
            <threshold>-2.4069850333034992e-003</threshold>
            <left_val>-0.9200087189674377</left_val>
            <right_val>0.4654402136802673</right_val></_></_>
        <_>
          <_>
            <feature>
              <rects>
                <_>
                  10 17 4 4 -1.</_>
                <_>
                  10 18 4 2 2.</_></rects>
              <tilted>0</tilted></feature>
            <threshold>-1.2947859941050410e-003</threshold>
            <left_val>0.8298599123954773</left_val>
            <right_val>-0.5929790139198303</right_val></_></_></trees>
      <stage_threshold>-0.4043048918247223</stage_threshold>
      <parent>6</parent>
      <next>-1</next></_>
    <_>
      <trees>
        <_>
          <_>
            <feature>
              <rects>
                <_>
                  0 0 24 1 -1.</_>
                <_>
                  6 0 12 1 2.</_></rects>
              <tilted>0</tilted></feature>
            <threshold>-5.8897509006783366e-004</threshold>
            <left_val>-0.8550724983215332</left_val>
            <right_val>0.4503819048404694</right_val></_></_>
        <_>
          <_>
            <feature>
              <rects>
                <_>
                  23 8 1 8 -1.</_>
                <_>
                  23 8 1 4 2.</_></rects>
              <tilted>1</tilted></feature>
            <threshold>-4.8702871426939964e-003</threshold>
            <left_val>-0.8827518224716187</left_val>
            <right_val>-0.0123339099809527</right_val></_></_>
        <_>
          <_>
            <feature>
              <rects>
                <_>
                  1 8 8 1 -1.</_>
                <_>
                  1 8 4 1 2.</_></rects>
              <tilted>1</tilted></feature>
            <threshold>0.0125984502956271</threshold>
            <left_val>-0.7292913198471069</left_val>
            <right_val>0.5896201729774475</right_val></_></_>
        <_>
          <_>
            <feature>
              <rects>
                <_>
                  20 20 4 4 -1.</_>
                <_>
                  20 22 4 2 2.</_></rects>
              <tilted>0</tilted></feature>
            <threshold>-2.0550900080706924e-004</threshold>
            <left_val>-0.8637627959251404</left_val>
            <right_val>0.1272571980953217</right_val></_></_>
        <_>
          <_>
            <feature>
              <rects>
                <_>
                  0 20 4 4 -1.</_>
                <_>
                  0 22 4 2 2.</_></rects>
              <tilted>0</tilted></feature>
            <threshold>-1.7486029537394643e-004</threshold>
            <left_val>-1.</left_val>
            <right_val>0.4070956110954285</right_val></_></_></trees>
      <stage_threshold>-0.7479106187820435</stage_threshold>
      <parent>7</parent>
      <next>-1</next></_>
    <_>
      <trees>
        <_>
          <_>
            <feature>
              <rects>
                <_>
                  1 1 12 1 -1.</_>
                <_>
                  1 1 6 1 2.</_></rects>
              <tilted>1</tilted></feature>
            <threshold>0.0279771592468023</threshold>
            <left_val>-0.7948719263076782</left_val>
            <right_val>0.5081968903541565</right_val></_></_>
        <_>
          <_>
            <feature>
              <rects>
                <_>
                  10 0 14 1 -1.</_>
                <_>
                  10 0 7 1 2.</_></rects>
              <tilted>0</tilted></feature>
            <threshold>-1.7137400573119521e-003</threshold>
            <left_val>-0.9428536891937256</left_val>
            <right_val>0.2781789898872376</right_val></_></_>
        <_>
          <_>
            <feature>
              <rects>
                <_>
                  0 0 1 9 -1.</_>
                <_>
                  0 3 1 3 3.</_></rects>
              <tilted>0</tilted></feature>
            <threshold>8.0049247480928898e-004</threshold>
            <left_val>0.3413796126842499</left_val>
            <right_val>-0.9517071247100830</right_val></_></_></trees>
      <stage_threshold>-0.1753132939338684</stage_threshold>
      <parent>8</parent>
      <next>-1</next></_>
    <_>
      <trees>
        <_>
          <_>
            <feature>
              <rects>
                <_>
                  0 2 2 6 -1.</_>
                <_>
                  0 4 2 2 3.</_></rects>
              <tilted>0</tilted></feature>
            <threshold>-3.4723500721156597e-004</threshold>
            <left_val>-0.9710144996643066</left_val>
            <right_val>0.5114505887031555</right_val></_></_>
        <_>
          <_>
            <feature>
              <rects>
                <_>
                  0 0 24 1 -1.</_>
                <_>
                  0 0 12 1 2.</_></rects>
              <tilted>0</tilted></feature>
            <threshold>-6.9506888394244015e-005</threshold>
            <left_val>0.5088124871253967</left_val>
            <right_val>-0.7988758087158203</right_val></_></_>
        <_>
          <_>
            <feature>
              <rects>
                <_>
                  0 8 1 8 -1.</_>
                <_>
                  0 10 1 4 2.</_></rects>
              <tilted>0</tilted></feature>
            <threshold>2.5432079564779997e-004</threshold>
            <left_val>0.4200307130813599</left_val>
            <right_val>-0.8774499297142029</right_val></_></_>
        <_>
          <_>
            <feature>
              <rects>
                <_>
                  8 0 16 24 -1.</_>
                <_>
                  12 0 8 24 2.</_></rects>
              <tilted>0</tilted></feature>
            <threshold>-0.0426955893635750</threshold>
            <left_val>0.1527678072452545</left_val>
            <right_val>-0.8483440279960632</right_val></_></_>
        <_>
          <_>
            <feature>
              <rects>
                <_>
                  0 0 16 24 -1.</_>
                <_>
                  4 0 8 24 2.</_></rects>
              <tilted>0</tilted></feature>
            <threshold>-0.0720167681574821</threshold>
            <left_val>0.5934556722640991</left_val>
            <right_val>-0.9556189179420471</right_val></_></_></trees>
      <stage_threshold>-0.6036360859870911</stage_threshold>
      <parent>9</parent>
      <next>-1</next></_>
    <_>
      <trees>
        <_>
          <_>
            <feature>
              <rects>
                <_>
                  0 2 24 18 -1.</_>
                <_>
                  8 8 8 6 9.</_></rects>
              <tilted>0</tilted></feature>
            <threshold>-0.7854059934616089</threshold>
            <left_val>0.5855857133865356</left_val>
            <right_val>-0.7303373813629150</right_val></_></_>
        <_>
          <_>
            <feature>
              <rects>
                <_>
                  20 23 4 1 -1.</_>
                <_>
                  20 23 2 1 2.</_></rects>
              <tilted>0</tilted></feature>
            <threshold>1.6158469952642918e-004</threshold>
            <left_val>0.1785766035318375</left_val>
            <right_val>-1.0000029802322388</right_val></_></_>
        <_>
          <_>
            <feature>
              <rects>
                <_>
                  0 8 24 16 -1.</_>
                <_>
                  0 12 24 8 2.</_></rects>
              <tilted>0</tilted></feature>
            <threshold>-0.0678979903459549</threshold>
            <left_val>0.6078643798828125</left_val>
            <right_val>-0.7559198737144470</right_val></_></_></trees>
      <stage_threshold>8.2424283027648926e-003</stage_threshold>
      <parent>10</parent>
      <next>-1</next></_></stages></myhaar>
</opencv_storage>
